%YAML:1.0
my_svm: !!opencv-ml-svm
   svm_type: C_SVC
   kernel: { type:LINEAR }
   C: 10.
   term_criteria: { epsilon:2.2204460492503131e-16, iterations:100 }
   var_all: 2
   var_count: 2
   class_count: 3
   class_labels: !!opencv-matrix
      rows: 1
      cols: 3
      dt: i
      data: [ 0, 1, 2 ]
   sv_total: 226
   support_vectors:
      - [ 8.70000005e-01, 4.72779363e-01 ]
      - [ 8.73333335e-01, 4.70085472e-01 ]
      - [ 8.79999995e-01, 4.68926549e-01 ]
      - [ 8.79999995e-01, 4.68926549e-01 ]
      - [ 8.70000005e-01, 5.01424491e-01 ]
      - [ 8.76666665e-01, 5.00000000e-01 ]
      - [ 8.79999995e-01, 4.63888884e-01 ]
      - [ 8.71666670e-01, 4.72779363e-01 ]
      - [ 8.38333309e-01, 4.74626869e-01 ]
      - [ 8.68333340e-01, 4.79768783e-01 ]
      - [ 8.39999974e-01, 4.74626869e-01 ]
      - [ 8.48333359e-01, 4.79289949e-01 ]
      - [ 8.48333359e-01, 4.79411751e-01 ]
      - [ 8.24999988e-01, 4.83282685e-01 ]
      - [ 8.55000019e-01, 4.85380113e-01 ]
      - [ 8.18333328e-01, 4.86238539e-01 ]
      - [ 8.63333344e-01, 4.89855081e-01 ]
      - [ 8.46666694e-01, 4.86725658e-01 ]
      - [ 8.50000024e-01, 4.89795923e-01 ]
      - [ 8.21666658e-01, 4.90963846e-01 ]
      - [ 7.98333347e-01, 4.90683228e-01 ]
      - [ 8.26666653e-01, 4.91017967e-01 ]
      - [ 8.06666672e-01, 4.90797549e-01 ]
      - [ 7.93333352e-01, 4.82972145e-01 ]
      - [ 7.78333306e-01, 4.82649833e-01 ]
      - [ 7.93333352e-01, 4.82972145e-01 ]
      - [ 7.58333325e-01, 4.82200652e-01 ]
      - [ 7.58333325e-01, 4.82200652e-01 ]
      - [ 7.63333321e-01, 4.82315123e-01 ]
      - [ 8.06666672e-01, 4.81707305e-01 ]
      - [ 8.06666672e-01, 4.81707305e-01 ]
      - [ 7.40000010e-01, 4.79750782e-01 ]
      - [ 7.50000000e-01, 4.95113999e-01 ]
      - [ 7.56666660e-01, 4.95145619e-01 ]
      - [ 7.41666675e-01, 4.95049506e-01 ]
      - [ 7.45000005e-01, 5.01661122e-01 ]
      - [ 5.73333323e-01, 4.47761208e-01 ]
      - [ 5.55000007e-01, 4.42307681e-01 ]
      - [ 5.14999986e-01, 4.38524604e-01 ]
      - [ 4.93333340e-01, 4.26724136e-01 ]
      - [ 5.41666687e-01, 4.28000003e-01 ]
      - [ 4.63333338e-01, 4.26605493e-01 ]
      - [ 5.00000000e-01, 4.20600861e-01 ]
      - [ 5.08333325e-01, 4.26160336e-01 ]
      - [ 5.79999983e-01, 4.47761208e-01 ]
      - [ 4.61666673e-01, 4.25925940e-01 ]
      - [ 4.55000013e-01, 4.13145542e-01 ]
      - [ 4.31666672e-01, 4.16666657e-01 ]
      - [ 4.65000004e-01, 4.24657524e-01 ]
      - [ 5.64999998e-01, 4.46564883e-01 ]
      - [ 4.61666673e-01, 4.22535211e-01 ]
      - [ 4.51666653e-01, 4.14285719e-01 ]
      - [ 4.41666663e-01, 4.12621349e-01 ]
      - [ 4.71666664e-01, 4.23423409e-01 ]
      - [ 4.85000014e-01, 4.29824561e-01 ]
      - [ 4.49999988e-01, 4.18604642e-01 ]
      - [ 5.73333323e-01, 4.45283026e-01 ]
      - [ 4.31666672e-01, 4.25000012e-01 ]
      - [ 4.41666663e-01, 4.16666657e-01 ]
      - [ 4.66666669e-01, 4.16666657e-01 ]
      - [ 5.13333321e-01, 4.26160336e-01 ]
      - [ 5.18333316e-01, 4.31535274e-01 ]
      - [ 5.08333325e-01, 4.22594130e-01 ]
      - [ 5.61666667e-01, 4.14448678e-01 ]
      - [ 4.58333343e-01, 4.26540285e-01 ]
      - [ 4.71666664e-01, 4.30555552e-01 ]
      - [ 4.91666675e-01, 4.31718051e-01 ]
      - [ 5.00000000e-01, 4.29184556e-01 ]
      - [ 5.16666651e-01, 4.23868299e-01 ]
      - [ 5.83333313e-01, 4.19117659e-01 ]
      - [ 6.63333356e-01, 4.32786882e-01 ]
      - [ 4.86666679e-01, 4.32432443e-01 ]
      - [ 4.78333324e-01, 4.26008970e-01 ]
      - [ 4.96666670e-01, 4.27350432e-01 ]
      - [ 5.76666653e-01, 4.37500000e-01 ]
      - [ 4.95000005e-01, 4.34977591e-01 ]
      - [ 5.11666656e-01, 4.29184556e-01 ]
      - [ 5.45000017e-01, 4.36507940e-01 ]
      - [ 6.23333335e-01, 4.53287184e-01 ]
      - [ 7.23333359e-01, 4.61773694e-01 ]
      - [ 5.50000012e-01, 4.43548381e-01 ]
      - [ 6.08333349e-01, 4.47272718e-01 ]
      - [ 6.81666672e-01, 4.58064526e-01 ]
      - [ 5.36666691e-01, 4.41666663e-01 ]
      - [ 6.71666682e-01, 4.57912445e-01 ]
      - [ 5.08333325e-01, 4.34782594e-01 ]
      - [ 5.33333361e-01, 4.32773113e-01 ]
      - [ 5.66666663e-01, 4.32000011e-01 ]
      - [ 5.43333352e-01, 4.38524604e-01 ]
      - [ 5.63333333e-01, 4.40476179e-01 ]
      - [ 5.98333359e-01, 4.40298498e-01 ]
      - [ 6.00000024e-01, 4.49814141e-01 ]
      - [ 5.86666644e-01, 4.35114503e-01 ]
      - [ 6.08333349e-01, 4.44444448e-01 ]
      - [ 4.61666673e-01, 4.33333337e-01 ]
      - [ 5.60000002e-01, 4.33734953e-01 ]
      - [ 5.91666639e-01, 4.38461542e-01 ]
      - [ 5.28333306e-01, 4.40170944e-01 ]
      - [ 5.63333333e-01, 4.43548381e-01 ]
      - [ 4.74999994e-01, 4.33179736e-01 ]
      - [ 4.55000013e-01, 4.34146345e-01 ]
      - [ 4.79999989e-01, 4.29864258e-01 ]
      - [ 4.65000004e-01, 4.25233632e-01 ]
      - [ 4.81666654e-01, 4.35779810e-01 ]
      - [ 4.38333333e-01, 4.23645318e-01 ]
      - [ 4.51666653e-01, 4.22330111e-01 ]
      - [ 4.28333342e-01, 4.29292917e-01 ]
      - [ 4.65000004e-01, 4.28571433e-01 ]
      - [ 4.88333344e-01, 4.35779810e-01 ]
      - [ 6.99999988e-01, 4.64285702e-01 ]
      - [ 7.16666639e-01, 4.66453671e-01 ]
      - [ 6.93333328e-01, 4.64052290e-01 ]
      - [ 3.60000014e-01, 4.27710831e-01 ]
      - [ 3.91666681e-01, 4.21348304e-01 ]
      - [ 4.85000014e-01, 4.31192666e-01 ]
      - [ 4.13333327e-01, 4.17989433e-01 ]
      - [ 4.31666672e-01, 4.13265318e-01 ]
      - [ 4.86666679e-01, 4.27272737e-01 ]
      - [ 5.89999974e-01, 4.48669195e-01 ]
      - [ 4.49999988e-01, 4.20792073e-01 ]
      - [ 4.39999998e-01, 4.09090906e-01 ]
      - [ 5.00000000e-01, 4.29203540e-01 ]
      - [ 6.11666679e-01, 4.48529422e-01 ]
      - [ 4.49999988e-01, 4.20792073e-01 ]
      - [ 5.04999995e-01, 4.29203540e-01 ]
      - [ 6.33333325e-01, 4.53237414e-01 ]
      - [ 4.76666659e-01, 4.33333337e-01 ]
      - [ 5.84999979e-01, 4.08695638e-01 ]
      - [ 5.84999979e-01, 4.08695638e-01 ]
      - [ 6.39999986e-01, 4.18972343e-01 ]
      - [ 6.54999971e-01, 4.20849413e-01 ]
      - [ 6.23333335e-01, 4.12244886e-01 ]
      - [ 5.64999998e-01, 4.05405402e-01 ]
      - [ 5.76666653e-01, 4.14096922e-01 ]
      - [ 6.26666665e-01, 4.17004049e-01 ]
      - [ 6.49999976e-01, 4.14062500e-01 ]
      - [ 6.28333330e-01, 4.12955463e-01 ]
      - [ 6.43333316e-01, 4.15019751e-01 ]
      - [ 6.58333361e-01, 4.16988403e-01 ]
      - [ 5.46666682e-01, 4.09302324e-01 ]
      - [ 6.03333354e-01, 4.15966392e-01 ]
      - [ 6.76666677e-01, 4.23220962e-01 ]
      - [ 6.23333335e-01, 4.12244886e-01 ]
      - [ 6.43333316e-01, 4.15019751e-01 ]
      - [ 6.43333316e-01, 4.15019751e-01 ]
      - [ 6.00000024e-01, 4.11016941e-01 ]
      - [ 6.89999998e-01, 4.24908429e-01 ]
      - [ 6.43333316e-01, 4.15019751e-01 ]
      - [ 6.49999976e-01, 4.14062500e-01 ]
      - [ 7.04999983e-01, 4.26523298e-01 ]
      - [ 6.61666691e-01, 4.21455950e-01 ]
      - [ 6.23333335e-01, 4.12244886e-01 ]
      - [ 6.00000024e-01, 4.11016941e-01 ]
      - [ 5.64999998e-01, 4.05405402e-01 ]
      - [ 5.84999979e-01, 4.08695638e-01 ]
      - [ 5.43333352e-01, 4.03755873e-01 ]
      - [ 6.76666677e-01, 4.23220962e-01 ]
      - [ 6.18333340e-01, 4.18032795e-01 ]
      - [ 5.28333306e-01, 4.00966197e-01 ]
      - [ 6.83333337e-01, 4.22222227e-01 ]
      - [ 6.26666665e-01, 4.17004049e-01 ]
      - [ 6.00000024e-01, 4.11016941e-01 ]
      - [ 6.89999998e-01, 4.24908429e-01 ]
      - [ 6.39999986e-01, 4.18972343e-01 ]
      - [ 5.64999998e-01, 4.05405402e-01 ]
      - [ 5.64999998e-01, 4.05405402e-01 ]
      - [ 6.28333330e-01, 4.12955463e-01 ]
      - [ 6.39999986e-01, 4.18972343e-01 ]
      - [ 6.26666665e-01, 4.17004049e-01 ]
      - [ 6.13333344e-01, 4.17355359e-01 ]
      - [ 5.98333359e-01, 4.15254235e-01 ]
      - [ 5.76666653e-01, 4.14096922e-01 ]
      - [ 5.43333352e-01, 4.03755873e-01 ]
      - [ 5.64999998e-01, 4.05405402e-01 ]
      - [ 5.84999979e-01, 4.08695638e-01 ]
      - [ 6.28333330e-01, 4.12955463e-01 ]
      - [ 5.76666653e-01, 4.14096922e-01 ]
      - [ 5.55000007e-01, 4.10958916e-01 ]
      - [ 5.61666667e-01, 4.11764711e-01 ]
      - [ 5.84999979e-01, 4.08695638e-01 ]
      - [ 6.43333316e-01, 4.15019751e-01 ]
      - [ 5.83333313e-01, 4.13043469e-01 ]
      - [ 5.61666667e-01, 4.11764711e-01 ]
      - [ 5.98333359e-01, 4.15254235e-01 ]
      - [ 6.18333340e-01, 4.18032795e-01 ]
      - [ 6.48333311e-01, 4.21875000e-01 ]
      - [ 5.98333359e-01, 4.15254235e-01 ]
      - [ 6.26666665e-01, 4.17004049e-01 ]
      - [ 6.39999986e-01, 4.18972343e-01 ]
      - [ 6.70000017e-01, 4.22641516e-01 ]
      - [ 6.28333330e-01, 4.12955463e-01 ]
      - [ 6.93333328e-01, 4.07942235e-01 ]
      - [ 3.18333328e-01, 3.68000001e-01 ]
      - [ 7.53333330e-01, 3.36734682e-01 ]
      - [ 3.63333344e-01, 3.78378391e-01 ]
      - [ 4.55000013e-01, 3.90625000e-01 ]
      - [ 4.63333338e-01, 4.03061211e-01 ]
      - [ 4.69999999e-01, 4.01015222e-01 ]
      - [ 4.48333323e-01, 4.15789485e-01 ]
      - [ 4.25000012e-01, 3.90109897e-01 ]
      - [ 4.18333322e-01, 4.11111116e-01 ]
      - [ 4.00000006e-01, 3.84615391e-01 ]
      - [ 3.91666681e-01, 4.07185614e-01 ]
      - [ 3.76666665e-01, 4.03726697e-01 ]
      - [ 4.28333342e-01, 3.86363626e-01 ]
      - [ 3.78333330e-01, 3.79746825e-01 ]
      - [ 4.13333327e-01, 3.89221549e-01 ]
      - [ 3.98333341e-01, 3.85093182e-01 ]
      - [ 4.03333336e-01, 3.85542154e-01 ]
      - [ 4.05000001e-01, 3.95061731e-01 ]
      - [ 3.95000011e-01, 3.92405063e-01 ]
      - [ 4.06666666e-01, 3.91566277e-01 ]
      - [ 4.05000001e-01, 3.95061731e-01 ]
      - [ 3.84999990e-01, 3.98692816e-01 ]
      - [ 3.88333321e-01, 3.94904464e-01 ]
      - [ 4.11666662e-01, 3.84615391e-01 ]
      - [ 3.98333341e-01, 4.06250000e-01 ]
      - [ 3.83333325e-01, 4.02597398e-01 ]
      - [ 3.88333321e-01, 3.94904464e-01 ]
      - [ 4.28333342e-01, 3.86363626e-01 ]
      - [ 4.11666662e-01, 4.03614461e-01 ]
      - [ 3.96666676e-01, 4.00000006e-01 ]
      - [ 3.91666681e-01, 3.87499988e-01 ]
      - [ 4.11666662e-01, 3.84615391e-01 ]
      - [ 4.11666662e-01, 3.84615391e-01 ]
      - [ 4.19999987e-01, 3.87283236e-01 ]
   decision_functions:
      -
         sv_count: 36
         rho: 1.0318475365638733e+01
         alpha: [ 10., 10., 10., 10., 10., 10., 10., 10., 10., 10., 10.,
             10., 10., 10., 10., 10., 10., 10., -10., -10., -10., -10.,
             -10., -10., -10., -10., -10., -10., -10., -10., -10., -10.,
             -10., -10., -10., -10. ]
         index: [ 0, 1, 2, 3, 4, 5, 6, 7, 8, 9, 10, 11, 12, 13, 14, 15,
             16, 17, 18, 19, 20, 21, 22, 23, 24, 25, 26, 27, 28, 29, 30,
             31, 32, 33, 34, 35 ]
      -
         sv_count: 14
         rho: 9.6927723884582520e+00
         alpha: [ 10., 10., 10., 10., 10., 10., 10., -10., -10., -10.,
             -10., -10., -10., -10. ]
         index: [ 8, 10, 11, 12, 13, 15, 17, 141, 146, 149, 159, 162,
             191, 193 ]
      -
         sv_count: 196
         rho: 1.0196036398410797e+01
         alpha: [ 10., 10., 10., 10., 10., 10., 10., 10., 10., 10., 10.,
             10., 10., 10., 10., 10., 10., 10., 10., 10., 10., 10., 10.,
             10., 10., 10., 10., 10., 10., 10., 10., 10., 10., 10., 10.,
             10., 10., 10., 10., 10., 10., 10., 10., 10., 10., 10., 10.,
             10., 10., 10., 10., 10., 10., 10., 10., 10., 10., 10., 10.,
             10., 10., 10., 10., 10., 10., 10., 10., 10., 10., 10., 10.,
             10., 10., 10., 10., 10., 10., 10., 10., 10., 10., 10., 10.,
             10., 10., 10., 10., 10., 10., 10., 10., 10., 10., 10., 10.,
             10., 10., 10., -10., -10., -10., -10., -10., -10., -10.,
             -10., -10., -10., -10., -10., -10., -10., -10., -10., -10.,
             -10., -10., -10., -10., -10., -10., -10., -10., -10., -10.,
             -10., -10., -10., -10., -10., -10., -10., -10., -10., -10.,
             -10., -10., -10., -10., -10., -10., -10., -10., -10., -10.,
             -10., -10., -10., -10., -10., -10., -10., -10., -10., -10.,
             -10., -10., -10., -10., -10., -10., -10., -10., -10., -10.,
             -10., -10., -10., -10., -10., -10., -10., -10., -10., -10.,
             -10., -10., -10., -10., -10., -10., -10., -10., -10., -10.,
             -10., -10., -10., -10., -10., -10., -10., -10., -10., -10.,
             -10. ]
         index: [ 18, 19, 21, 23, 25, 29, 30, 36, 37, 38, 39, 40, 41, 42,
             43, 44, 45, 46, 47, 48, 49, 50, 51, 52, 53, 54, 55, 56, 57,
             58, 59, 60, 61, 62, 63, 64, 65, 66, 67, 68, 69, 70, 71, 72,
             73, 74, 75, 76, 77, 78, 79, 80, 81, 82, 83, 84, 85, 86, 87,
             88, 89, 90, 91, 92, 93, 94, 95, 96, 97, 98, 99, 100, 101,
             102, 103, 104, 105, 106, 107, 108, 109, 110, 111, 112, 113,
             114, 115, 116, 117, 118, 119, 120, 121, 122, 123, 124, 125,
             126, 127, 128, 129, 130, 131, 132, 133, 134, 135, 136, 137,
             138, 139, 140, 141, 142, 143, 144, 145, 146, 147, 148, 149,
             150, 151, 152, 153, 154, 155, 156, 157, 158, 159, 160, 161,
             162, 163, 164, 165, 166, 167, 168, 169, 170, 171, 172, 173,
             174, 175, 176, 177, 178, 179, 180, 181, 182, 183, 184, 185,
             186, 187, 188, 189, 190, 191, 192, 194, 195, 196, 197, 198,
             199, 200, 201, 202, 203, 204, 205, 206, 207, 208, 209, 210,
             211, 212, 213, 214, 215, 216, 217, 218, 219, 220, 221, 222,
             223, 224, 225 ]
