%YAML:1.0
my_svm: !!opencv-ml-svm
   svm_type: C_SVC
   kernel: { type:LINEAR }
   C: 10.
   term_criteria: { epsilon:2.2204460492503131e-16, iterations:100 }
   var_all: 2
   var_count: 2
   class_count: 3
   class_labels: !!opencv-matrix
      rows: 1
      cols: 3
      dt: i
      data: [ 0, 1, 2 ]
   sv_total: 249
   support_vectors:
      - [ 8.70000005e-01, 4.72779363e-01 ]
      - [ 8.73333335e-01, 4.70085472e-01 ]
      - [ 8.79999995e-01, 4.68926549e-01 ]
      - [ 8.79999995e-01, 4.68926549e-01 ]
      - [ 8.79999995e-01, 4.63888884e-01 ]
      - [ 8.86666656e-01, 4.65564728e-01 ]
      - [ 8.71666670e-01, 4.72779363e-01 ]
      - [ 8.38333309e-01, 4.74626869e-01 ]
      - [ 8.68333340e-01, 4.79768783e-01 ]
      - [ 8.38333309e-01, 4.74626869e-01 ]
      - [ 8.48333359e-01, 4.79289949e-01 ]
      - [ 8.48333359e-01, 4.79411751e-01 ]
      - [ 8.24999988e-01, 4.83282685e-01 ]
      - [ 8.55000019e-01, 4.85380113e-01 ]
      - [ 8.18333328e-01, 4.86238539e-01 ]
      - [ 8.63333344e-01, 4.89855081e-01 ]
      - [ 8.46666694e-01, 4.86725658e-01 ]
      - [ 7.61666656e-01, 6.01351380e-01 ]
      - [ 7.54999995e-01, 6.04095578e-01 ]
      - [ 7.56666660e-01, 6.06164396e-01 ]
      - [ 7.61666656e-01, 6.01351380e-01 ]
      - [ 7.56666660e-01, 6.07508540e-01 ]
      - [ 7.76666641e-01, 5.80858111e-01 ]
      - [ 7.71666646e-01, 5.81395328e-01 ]
      - [ 7.48333335e-01, 5.85616410e-01 ]
      - [ 7.53333330e-01, 5.85034013e-01 ]
      - [ 7.71666646e-01, 5.81395328e-01 ]
      - [ 7.04999983e-01, 6.57894731e-01 ]
      - [ 7.06666648e-01, 6.61654115e-01 ]
      - [ 7.03333318e-01, 6.66666687e-01 ]
      - [ 7.09999979e-01, 6.57894731e-01 ]
      - [ 8.51666689e-01, 4.89795923e-01 ]
      - [ 8.21666658e-01, 4.89425987e-01 ]
      - [ 8.00000012e-01, 4.90683228e-01 ]
      - [ 8.29999983e-01, 4.91017967e-01 ]
      - [ 8.08333337e-01, 4.90797549e-01 ]
      - [ 7.93333352e-01, 4.82972145e-01 ]
      - [ 7.78333306e-01, 4.82649833e-01 ]
      - [ 7.93333352e-01, 4.82972145e-01 ]
      - [ 7.58333325e-01, 4.82200652e-01 ]
      - [ 7.58333325e-01, 4.82200652e-01 ]
      - [ 7.63333321e-01, 4.82315123e-01 ]
      - [ 8.06666672e-01, 4.81707305e-01 ]
      - [ 8.06666672e-01, 4.81707305e-01 ]
      - [ 7.40000010e-01, 4.79750782e-01 ]
      - [ 7.11666644e-01, 5.05154610e-01 ]
      - [ 7.11666644e-01, 5.05154610e-01 ]
      - [ 7.21666694e-01, 5.05119443e-01 ]
      - [ 7.30000019e-01, 5.00000000e-01 ]
      - [ 7.50000000e-01, 4.95113999e-01 ]
      - [ 7.28333354e-01, 4.96644288e-01 ]
      - [ 7.56666660e-01, 4.95145619e-01 ]
      - [ 7.41666675e-01, 4.95049506e-01 ]
      - [ 7.21666694e-01, 5.01718223e-01 ]
      - [ 7.45000005e-01, 5.01661122e-01 ]
      - [ 7.13333309e-01, 5.06896555e-01 ]
      - [ 7.26666689e-01, 4.93464053e-01 ]
      - [ 7.21666694e-01, 4.93421048e-01 ]
      - [ 7.23333359e-01, 4.88599360e-01 ]
      - [ 7.35000014e-01, 4.82315123e-01 ]
      - [ 5.55000007e-01, 4.42307681e-01 ]
      - [ 5.14999986e-01, 4.38524604e-01 ]
      - [ 4.93333340e-01, 4.26724136e-01 ]
      - [ 5.41666687e-01, 4.28000003e-01 ]
      - [ 5.14999986e-01, 4.39834028e-01 ]
      - [ 4.63333338e-01, 4.26605493e-01 ]
      - [ 5.00000000e-01, 4.20600861e-01 ]
      - [ 5.08333325e-01, 4.26160336e-01 ]
      - [ 5.79999983e-01, 4.47761208e-01 ]
      - [ 4.61666673e-01, 4.25925940e-01 ]
      - [ 4.53333348e-01, 4.15094346e-01 ]
      - [ 4.31666672e-01, 4.16666657e-01 ]
      - [ 4.63333338e-01, 4.26605493e-01 ]
      - [ 4.61666673e-01, 4.22535211e-01 ]
      - [ 4.51666653e-01, 4.14285719e-01 ]
      - [ 4.39999998e-01, 4.14634138e-01 ]
      - [ 4.69999999e-01, 4.25339371e-01 ]
      - [ 4.83333319e-01, 4.31718051e-01 ]
      - [ 4.49999988e-01, 4.18604642e-01 ]
      - [ 5.73333323e-01, 4.45283026e-01 ]
      - [ 4.31666672e-01, 4.25000012e-01 ]
      - [ 4.41666663e-01, 4.16666657e-01 ]
      - [ 4.65000004e-01, 4.18604642e-01 ]
      - [ 5.13333321e-01, 4.26160336e-01 ]
      - [ 5.16666651e-01, 4.31535274e-01 ]
      - [ 5.06666660e-01, 4.22594130e-01 ]
      - [ 5.58333337e-01, 4.12213743e-01 ]
      - [ 4.58333343e-01, 4.26540285e-01 ]
      - [ 4.71666664e-01, 4.30555552e-01 ]
      - [ 4.91666675e-01, 4.31718051e-01 ]
      - [ 4.98333335e-01, 4.26724136e-01 ]
      - [ 5.14999986e-01, 4.21487600e-01 ]
      - [ 5.81666648e-01, 4.19117659e-01 ]
      - [ 6.61666691e-01, 4.32786882e-01 ]
      - [ 4.85000014e-01, 4.32432443e-01 ]
      - [ 4.78333324e-01, 4.26008970e-01 ]
      - [ 4.96666670e-01, 4.27350432e-01 ]
      - [ 5.74999988e-01, 4.37500000e-01 ]
      - [ 4.93333340e-01, 4.34977591e-01 ]
      - [ 5.09999990e-01, 4.29184556e-01 ]
      - [ 5.45000017e-01, 4.36507940e-01 ]
      - [ 6.23333335e-01, 4.53287184e-01 ]
      - [ 7.23333359e-01, 4.61773694e-01 ]
      - [ 5.50000012e-01, 4.43548381e-01 ]
      - [ 6.08333349e-01, 4.47272718e-01 ]
      - [ 6.81666672e-01, 4.58064526e-01 ]
      - [ 5.36666691e-01, 4.41666663e-01 ]
      - [ 6.71666682e-01, 4.57912445e-01 ]
      - [ 5.08333325e-01, 4.34782594e-01 ]
      - [ 5.33333361e-01, 4.32773113e-01 ]
      - [ 5.66666663e-01, 4.32000011e-01 ]
      - [ 5.43333352e-01, 4.38524604e-01 ]
      - [ 5.63333333e-01, 4.40476179e-01 ]
      - [ 5.98333359e-01, 4.40298498e-01 ]
      - [ 6.00000024e-01, 4.49814141e-01 ]
      - [ 5.86666644e-01, 4.35114503e-01 ]
      - [ 6.08333349e-01, 4.44444448e-01 ]
      - [ 4.61666673e-01, 4.33333337e-01 ]
      - [ 5.60000002e-01, 4.33734953e-01 ]
      - [ 5.91666639e-01, 4.38461542e-01 ]
      - [ 5.28333306e-01, 4.40170944e-01 ]
      - [ 5.63333333e-01, 4.43548381e-01 ]
      - [ 4.74999994e-01, 4.33179736e-01 ]
      - [ 6.48333311e-01, 4.58333343e-01 ]
      - [ 4.79999989e-01, 4.29864258e-01 ]
      - [ 4.65000004e-01, 4.25233632e-01 ]
      - [ 4.81666654e-01, 4.35779810e-01 ]
      - [ 4.38333333e-01, 4.23645318e-01 ]
      - [ 4.51666653e-01, 4.22330111e-01 ]
      - [ 4.28333342e-01, 4.29292917e-01 ]
      - [ 4.65000004e-01, 4.28571433e-01 ]
      - [ 4.88333344e-01, 4.35779810e-01 ]
      - [ 6.99999988e-01, 4.64285702e-01 ]
      - [ 7.16666639e-01, 4.66453671e-01 ]
      - [ 6.93333328e-01, 4.64052290e-01 ]
      - [ 3.60000014e-01, 4.27710831e-01 ]
      - [ 3.91666681e-01, 4.21348304e-01 ]
      - [ 4.85000014e-01, 4.31192666e-01 ]
      - [ 4.13333327e-01, 4.17989433e-01 ]
      - [ 4.31666672e-01, 4.13265318e-01 ]
      - [ 4.86666679e-01, 4.27272737e-01 ]
      - [ 5.89999974e-01, 4.48669195e-01 ]
      - [ 4.49999988e-01, 4.20792073e-01 ]
      - [ 4.39999998e-01, 4.09090906e-01 ]
      - [ 5.00000000e-01, 4.29203540e-01 ]
      - [ 6.11666679e-01, 4.48529422e-01 ]
      - [ 4.49999988e-01, 4.20792073e-01 ]
      - [ 5.04999995e-01, 4.29203540e-01 ]
      - [ 6.33333325e-01, 4.53237414e-01 ]
      - [ 4.76666659e-01, 4.33333337e-01 ]
      - [ 5.84999979e-01, 4.08695638e-01 ]
      - [ 6.41666651e-01, 4.21259850e-01 ]
      - [ 6.56666696e-01, 4.23076928e-01 ]
      - [ 6.36666656e-01, 4.14342642e-01 ]
      - [ 5.76666653e-01, 4.14096922e-01 ]
      - [ 6.28333330e-01, 4.19354826e-01 ]
      - [ 6.51666641e-01, 4.16342407e-01 ]
      - [ 6.29999995e-01, 4.15322572e-01 ]
      - [ 6.44999981e-01, 4.17322844e-01 ]
      - [ 6.58333361e-01, 4.16988403e-01 ]
      - [ 6.15000010e-01, 4.13223147e-01 ]
      - [ 5.51666677e-01, 4.05529946e-01 ]
      - [ 5.48333347e-01, 4.12037045e-01 ]
      - [ 6.05000019e-01, 4.18410033e-01 ]
      - [ 6.78333342e-01, 4.25373137e-01 ]
      - [ 6.44999981e-01, 4.17322844e-01 ]
      - [ 6.44999981e-01, 4.17322844e-01 ]
      - [ 5.51666677e-01, 4.05529946e-01 ]
      - [ 5.73333323e-01, 4.08888876e-01 ]
      - [ 6.10000014e-01, 4.12499994e-01 ]
      - [ 6.91666663e-01, 4.27007288e-01 ]
      - [ 6.44999981e-01, 4.17322844e-01 ]
      - [ 6.51666641e-01, 4.16342407e-01 ]
      - [ 5.73333323e-01, 4.08888876e-01 ]
      - [ 7.04999983e-01, 4.26523298e-01 ]
      - [ 6.63333356e-01, 4.23664123e-01 ]
      - [ 5.73333323e-01, 4.08888876e-01 ]
      - [ 5.51666677e-01, 4.05529946e-01 ]
      - [ 5.73333323e-01, 4.08888876e-01 ]
      - [ 6.78333342e-01, 4.25373137e-01 ]
      - [ 6.20000005e-01, 4.20408159e-01 ]
      - [ 6.10000014e-01, 4.12499994e-01 ]
      - [ 5.58333337e-01, 4.06392694e-01 ]
      - [ 5.51666677e-01, 4.05529946e-01 ]
      - [ 5.51666677e-01, 4.05529946e-01 ]
      - [ 5.58333337e-01, 4.06392694e-01 ]
      - [ 6.85000002e-01, 4.24354255e-01 ]
      - [ 6.28333330e-01, 4.19354826e-01 ]
      - [ 5.51666677e-01, 4.05529946e-01 ]
      - [ 5.58333337e-01, 4.06392694e-01 ]
      - [ 5.58333337e-01, 4.06392694e-01 ]
      - [ 5.73333323e-01, 4.08888876e-01 ]
      - [ 6.91666663e-01, 4.27007288e-01 ]
      - [ 6.41666651e-01, 4.21259850e-01 ]
      - [ 6.15000010e-01, 4.13223147e-01 ]
      - [ 6.10000014e-01, 4.12499994e-01 ]
      - [ 5.73333323e-01, 4.08888876e-01 ]
      - [ 6.29999995e-01, 4.15322572e-01 ]
      - [ 6.41666651e-01, 4.21259850e-01 ]
      - [ 6.28333330e-01, 4.19354826e-01 ]
      - [ 6.13333344e-01, 4.17355359e-01 ]
      - [ 6.00000024e-01, 4.17721510e-01 ]
      - [ 5.76666653e-01, 4.14096922e-01 ]
      - [ 6.29999995e-01, 4.15322572e-01 ]
      - [ 5.76666653e-01, 4.14096922e-01 ]
      - [ 5.56666672e-01, 4.09090906e-01 ]
      - [ 5.64999998e-01, 4.12556052e-01 ]
      - [ 6.46666646e-01, 4.15686280e-01 ]
      - [ 5.86666644e-01, 4.13793117e-01 ]
      - [ 5.64999998e-01, 4.12556052e-01 ]
      - [ 6.01666689e-01, 4.15966392e-01 ]
      - [ 6.21666670e-01, 4.18699175e-01 ]
      - [ 6.49999976e-01, 4.20233458e-01 ]
      - [ 6.01666689e-01, 4.15966392e-01 ]
      - [ 6.29999995e-01, 4.17670697e-01 ]
      - [ 6.43333316e-01, 4.19607848e-01 ]
      - [ 6.71666682e-01, 4.21052635e-01 ]
      - [ 6.94999993e-01, 4.10071939e-01 ]
      - [ 3.18333328e-01, 3.68000001e-01 ]
      - [ 7.53333330e-01, 3.36734682e-01 ]
      - [ 3.63333344e-01, 3.78378391e-01 ]
      - [ 4.63333338e-01, 4.03061211e-01 ]
      - [ 4.69999999e-01, 4.01015222e-01 ]
      - [ 4.48333323e-01, 4.15789485e-01 ]
      - [ 4.25000012e-01, 3.90109897e-01 ]
      - [ 4.18333322e-01, 4.11111116e-01 ]
      - [ 4.00000006e-01, 3.84615391e-01 ]
      - [ 3.91666681e-01, 4.07185614e-01 ]
      - [ 3.76666665e-01, 4.03726697e-01 ]
      - [ 3.78333330e-01, 3.79746825e-01 ]
      - [ 4.13333327e-01, 3.89221549e-01 ]
      - [ 3.98333341e-01, 3.85093182e-01 ]
      - [ 4.03333336e-01, 3.85542154e-01 ]
      - [ 4.05000001e-01, 3.95061731e-01 ]
      - [ 3.95000011e-01, 3.92405063e-01 ]
      - [ 4.06666666e-01, 3.91566277e-01 ]
      - [ 4.05000001e-01, 3.95061731e-01 ]
      - [ 3.84999990e-01, 3.98692816e-01 ]
      - [ 3.88333321e-01, 3.94904464e-01 ]
      - [ 4.11666662e-01, 3.84615391e-01 ]
      - [ 3.98333341e-01, 4.06250000e-01 ]
      - [ 3.83333325e-01, 4.02597398e-01 ]
      - [ 3.88333321e-01, 3.94904464e-01 ]
      - [ 4.11666662e-01, 4.03614461e-01 ]
      - [ 3.96666676e-01, 4.00000006e-01 ]
      - [ 3.91666681e-01, 3.87499988e-01 ]
      - [ 4.11666662e-01, 3.84615391e-01 ]
      - [ 4.11666662e-01, 3.84615391e-01 ]
      - [ 4.19999987e-01, 3.87283236e-01 ]
   decision_functions:
      -
         sv_count: 60
         rho: 1.7400240623240823e+01
         alpha: [ 10., 10., 10., 10., 10., 1.6408086539210931e+00, 10.,
             10., 10., 10., 10., 10., 10., 10., 10., 10., 10., 10., 10.,
             10., 10., 6.1150890833982112e+00, 10., 10., 10., 10., 10.,
             10., 10., 2.2441022626806997e+00, 10., -10., -10., -10.,
             -10., -10., -10., -10., -10., -10., -10., -10., -10., -10.,
             -10., -10., -10., -10., -10., -10., -10., -10., -10., -10.,
             -10., -10., -10., -10., -10., -10. ]
         index: [ 0, 1, 2, 3, 4, 5, 6, 7, 8, 9, 10, 11, 12, 13, 14, 15,
             16, 17, 18, 19, 20, 21, 22, 23, 24, 25, 26, 27, 28, 29, 30,
             31, 32, 33, 34, 35, 36, 37, 38, 39, 40, 41, 42, 43, 44, 45,
             46, 47, 48, 49, 50, 51, 52, 53, 54, 55, 56, 57, 58, 59 ]
      -
         sv_count: 17
         rho: 1.0537934216418995e+01
         alpha: [ 10., 10., 10., 9.6867599251081185e+00, 10., 10., 10.,
             10., 3.1324007489188221e-01, -10., -10., -10., -10., -10.,
             -10., -10., -10. ]
         index: [ 7, 9, 10, 11, 12, 14, 24, 25, 27, 164, 170, 174, 179,
             186, 192, 217, 219 ]
      -
         sv_count: 196
         rho: 9.6136471629142761e+00
         alpha: [ 10., 10., 10., 10., 10., 10., 10., 10., 10., 10., 10.,
             10., 10., 10., 10., 10., 10., 10., 10., 10., 10., 10., 10.,
             10., 10., 10., 10., 10., 10., 10., 10., 10., 10., 10., 10.,
             10., 10., 10., 10., 10., 10., 10., 10., 10., 10., 10., 10.,
             10., 10., 10., 10., 10., 10., 10., 10., 10., 10., 10., 10.,
             10., 10., 10., 10., 10., 10., 10., 10., 10., 10., 10., 10.,
             10., 10., 10., 10., 10., 10., 10., 10., 10., 10., 10., 10.,
             10., 10., 10., 10., 10., 10., 10., 10., 10., 10., 10., 10.,
             10., 10., 10., -10., -10., -10., -10., -10., -10., -10.,
             -10., -10., -10., -10., -10., -10., -10., -10., -10., -10.,
             -10., -10., -10., -10., -10., -10., -10., -10., -10., -10.,
             -10., -10., -10., -10., -10., -10., -10., -10., -10., -10.,
             -10., -10., -10., -10., -10., -10., -10., -10., -10., -10.,
             -10., -10., -10., -10., -10., -10., -10., -10., -10., -10.,
             -10., -10., -10., -10., -10., -10., -10., -10., -10., -10.,
             -10., -10., -10., -10., -10., -10., -10., -10., -10., -10.,
             -10., -10., -10., -10., -10., -10., -10., -10., -10., -10.,
             -10., -10., -10., -10., -10., -10., -10., -10., -10., -10.,
             -10. ]
         index: [ 31, 32, 34, 36, 37, 38, 42, 43, 60, 61, 62, 63, 64, 65,
             66, 67, 68, 69, 70, 71, 72, 73, 74, 75, 76, 77, 78, 79, 80,
             81, 82, 83, 84, 85, 86, 87, 88, 89, 90, 91, 92, 93, 94, 95,
             96, 97, 98, 99, 100, 101, 102, 103, 104, 105, 106, 107, 108,
             109, 110, 111, 112, 113, 114, 115, 116, 117, 118, 119, 120,
             121, 122, 123, 124, 125, 126, 127, 128, 129, 130, 131, 132,
             133, 134, 135, 136, 137, 138, 139, 140, 141, 142, 143, 144,
             145, 146, 147, 148, 149, 150, 151, 152, 153, 154, 155, 156,
             157, 158, 159, 160, 161, 162, 163, 164, 165, 166, 167, 168,
             169, 170, 171, 172, 173, 174, 175, 176, 177, 178, 179, 180,
             181, 182, 183, 184, 185, 186, 187, 188, 189, 190, 191, 192,
             193, 194, 195, 196, 197, 198, 199, 200, 201, 202, 203, 204,
             205, 206, 207, 208, 209, 210, 211, 212, 213, 214, 215, 216,
             217, 218, 220, 221, 222, 223, 224, 225, 226, 227, 228, 229,
             230, 231, 232, 233, 234, 235, 236, 237, 238, 239, 240, 241,
             242, 243, 244, 245, 246, 247, 248 ]
