%YAML:1.0
my_svm: !!opencv-ml-svm
   svm_type: C_SVC
   kernel: { type:LINEAR }
   C: 10.
   term_criteria: { epsilon:2.2204460492503131e-016, iterations:100 }
   var_all: 3
   var_count: 3
   class_count: 3
   class_labels: !!opencv-matrix
      rows: 1
      cols: 3
      dt: i
      data: [ 0, 1, 2 ]
   sv_total: 140
   support_vectors:
      - [ 8.70000005e-001, 4.72779363e-001, 4.84593838e-001 ]
      - [ 8.73333335e-001, 4.70085472e-001, 4.81894165e-001 ]
      - [ 8.79999995e-001, 4.68926549e-001, 4.80662972e-001 ]
      - [ 8.79999995e-001, 4.68926549e-001, 4.80662972e-001 ]
      - [ 8.70000005e-001, 5.01424491e-001, 4.94219661e-001 ]
      - [ 8.76666665e-001, 5.00000000e-001, 4.88505751e-001 ]
      - [ 8.79999995e-001, 4.63888884e-001, 4.65373963e-001 ]
      - [ 8.71666670e-001, 4.72779363e-001, 4.86033529e-001 ]
      - [ 8.38333309e-001, 4.74626869e-001, 4.88372087e-001 ]
      - [ 8.68333340e-001, 4.79768783e-001, 4.92957741e-001 ]
      - [ 8.39999974e-001, 4.74626869e-001, 4.89855081e-001 ]
      - [ 8.48333359e-001, 4.79289949e-001, 4.92795378e-001 ]
      - [ 8.48333359e-001, 4.79411751e-001, 4.88439292e-001 ]
      - [ 8.24999988e-001, 4.83282685e-001, 4.94047612e-001 ]
      - [ 8.55000019e-001, 4.85380113e-001, 4.92795378e-001 ]
      - [ 8.18333328e-001, 4.86238539e-001, 4.93975908e-001 ]
      - [ 8.63333344e-001, 4.89855081e-001, 4.95701998e-001 ]
      - [ 8.46666694e-001, 4.86725658e-001, 4.92711365e-001 ]
      - [ 8.50000024e-001, 4.89795923e-001, 4.88304108e-001 ]
      - [ 8.21666658e-001, 4.90963846e-001, 4.87878799e-001 ]
      - [ 7.98333347e-001, 4.90683228e-001, 4.89096582e-001 ]
      - [ 8.26666653e-001, 4.91017967e-001, 4.87951815e-001 ]
      - [ 8.06666672e-001, 4.90797549e-001, 4.87654328e-001 ]
      - [ 7.93333352e-001, 4.82972145e-001, 4.78125006e-001 ]
      - [ 7.78333306e-001, 4.82649833e-001, 4.77706999e-001 ]
      - [ 7.93333352e-001, 4.82972145e-001, 4.78125006e-001 ]
      - [ 7.58333325e-001, 4.82200652e-001, 4.77124184e-001 ]
      - [ 7.58333325e-001, 4.82200652e-001, 4.77124184e-001 ]
      - [ 7.63333321e-001, 4.82315123e-001, 4.77272719e-001 ]
      - [ 8.06666672e-001, 4.81707305e-001, 4.78527606e-001 ]
      - [ 8.06666672e-001, 4.81707305e-001, 4.78527606e-001 ]
      - [ 7.40000010e-001, 4.79750782e-001, 4.24137920e-001 ]
      - [ 7.50000000e-001, 4.95113999e-001, 4.79865760e-001 ]
      - [ 7.56666660e-001, 4.95145619e-001, 4.81727570e-001 ]
      - [ 7.41666675e-001, 4.95049506e-001, 4.81355935e-001 ]
      - [ 7.21666694e-001, 5.01718223e-001, 4.94773507e-001 ]
      - [ 7.45000005e-001, 5.01661122e-001, 4.93243247e-001 ]
      - [ 6.49999976e-001, 5.03816783e-001, 4.96124029e-001 ]
      - [ 4.51666653e-001, 4.14285719e-001, 3.31521749e-001 ]
      - [ 4.41666663e-001, 4.12621349e-001, 3.27777773e-001 ]
      - [ 4.41666663e-001, 4.16666657e-001, 3.38888884e-001 ]
      - [ 4.66666669e-001, 4.16666657e-001, 3.36842120e-001 ]
      - [ 4.95000005e-001, 4.34977591e-001, 3.70000005e-001 ]
      - [ 5.11666656e-001, 4.29184556e-001, 3.57487917e-001 ]
      - [ 5.33333361e-001, 4.32773113e-001, 3.77880186e-001 ]
      - [ 5.66666663e-001, 4.32000011e-001, 3.87931049e-001 ]
      - [ 5.86666644e-001, 4.35114503e-001, 3.78151268e-001 ]
      - [ 5.60000002e-001, 4.33734953e-001, 3.81578952e-001 ]
      - [ 5.91666639e-001, 4.38461542e-001, 3.94190878e-001 ]
      - [ 5.28333306e-001, 4.40170944e-001, 3.87850463e-001 ]
      - [ 5.63333333e-001, 4.43548381e-001, 3.94736856e-001 ]
      - [ 4.55000013e-001, 4.34146345e-001, 3.69565219e-001 ]
      - [ 4.46666658e-001, 4.47236180e-001, 3.85474861e-001 ]
      - [ 5.03333330e-001, 4.43946183e-001, 3.89162570e-001 ]
      - [ 4.43333328e-001, 4.37185943e-001, 3.74301672e-001 ]
      - [ 4.51666653e-001, 4.22330111e-001, 3.53260875e-001 ]
      - [ 4.55000013e-001, 4.45544541e-001, 3.87978137e-001 ]
      - [ 4.55000013e-001, 4.34146345e-001, 3.69565219e-001 ]
      - [ 4.74999994e-001, 4.36619729e-001, 3.75000000e-001 ]
      - [ 4.65000004e-001, 4.28571433e-001, 3.65079373e-001 ]
      - [ 4.63333338e-001, 4.36893195e-001, 3.82978737e-001 ]
      - [ 4.90000010e-001, 4.44954127e-001, 3.85786802e-001 ]
      - [ 4.88333344e-001, 4.35779810e-001, 3.78787875e-001 ]
      - [ 4.49999988e-001, 4.49494958e-001, 3.97790045e-001 ]
      - [ 4.79999989e-001, 4.48113203e-001, 3.93782377e-001 ]
      - [ 4.21666652e-001, 4.34554964e-001, 3.64705890e-001 ]
      - [ 3.91666681e-001, 4.21348304e-001, 3.56249988e-001 ]
      - [ 4.85000014e-001, 4.31192666e-001, 3.70558381e-001 ]
      - [ 4.13333327e-001, 4.17989433e-001, 3.49112421e-001 ]
      - [ 4.31666672e-001, 4.13265318e-001, 3.53932589e-001 ]
      - [ 4.86666679e-001, 4.27272737e-001, 3.63636374e-001 ]
      - [ 4.49999988e-001, 4.20792073e-001, 3.67567569e-001 ]
      - [ 4.39999998e-001, 4.09090906e-001, 3.60655725e-001 ]
      - [ 5.00000000e-001, 4.29203540e-001, 3.64532024e-001 ]
      - [ 4.83333319e-001, 4.39252347e-001, 3.87755096e-001 ]
      - [ 4.49999988e-001, 4.20792073e-001, 3.67567569e-001 ]
      - [ 5.04999995e-001, 4.29203540e-001, 3.73786420e-001 ]
      - [ 5.23333311e-001, 4.53744501e-001, 4.12322283e-001 ]
      - [ 4.76666659e-001, 4.33333337e-001, 3.89743596e-001 ]
      - [ 5.31666696e-001, 4.42060083e-001, 3.98148149e-001 ]
      - [ 5.50000012e-001, 4.53389823e-001, 4.21524674e-001 ]
      - [ 6.39999986e-001, 4.18972343e-001, 4.71223027e-001 ]
      - [ 6.54999971e-001, 4.20849413e-001, 4.71830994e-001 ]
      - [ 6.26666665e-001, 4.17004049e-001, 4.72527474e-001 ]
      - [ 6.49999976e-001, 4.14062500e-001, 4.71830994e-001 ]
      - [ 6.58333361e-001, 4.16988403e-001, 4.73867595e-001 ]
      - [ 6.03333354e-001, 4.15966392e-001, 4.71482903e-001 ]
      - [ 6.76666677e-001, 4.23220962e-001, 4.74402726e-001 ]
      - [ 6.89999998e-001, 4.24908429e-001, 4.73154366e-001 ]
      - [ 7.04999983e-001, 4.26523298e-001, 4.73684222e-001 ]
      - [ 6.61666691e-001, 4.21455950e-001, 4.73867595e-001 ]
      - [ 6.76666677e-001, 4.23220962e-001, 4.74402726e-001 ]
      - [ 6.18333340e-001, 4.18032795e-001, 4.72118974e-001 ]
      - [ 6.83333337e-001, 4.22222227e-001, 4.72972959e-001 ]
      - [ 6.26666665e-001, 4.17004049e-001, 4.72527474e-001 ]
      - [ 6.89999998e-001, 4.24908429e-001, 4.73154366e-001 ]
      - [ 6.39999986e-001, 4.18972343e-001, 4.71223027e-001 ]
      - [ 6.39999986e-001, 4.18972343e-001, 4.71223027e-001 ]
      - [ 6.26666665e-001, 4.17004049e-001, 4.72527474e-001 ]
      - [ 6.13333344e-001, 4.17355359e-001, 4.71910119e-001 ]
      - [ 6.18333340e-001, 4.18032795e-001, 4.72118974e-001 ]
      - [ 6.48333311e-001, 4.21875000e-001, 4.73309606e-001 ]
      - [ 6.26666665e-001, 4.17004049e-001, 4.72527474e-001 ]
      - [ 6.39999986e-001, 4.18972343e-001, 4.71223027e-001 ]
      - [ 6.70000017e-001, 4.22641516e-001, 4.72413778e-001 ]
      - [ 6.93333328e-001, 4.07942235e-001, 4.58745867e-001 ]
      - [ 7.53333330e-001, 3.36734682e-001, 4.47592080e-001 ]
      - [ 4.93333340e-001, 3.76190484e-001, 3.96313369e-001 ]
      - [ 5.19999981e-001, 3.89140278e-001, 4.02654856e-001 ]
      - [ 4.86666679e-001, 3.76811594e-001, 3.97196263e-001 ]
      - [ 4.55000013e-001, 3.90625000e-001, 4.09090906e-001 ]
      - [ 5.36666691e-001, 3.86956513e-001, 3.94849777e-001 ]
      - [ 5.53333342e-001, 3.92405063e-001, 3.97489548e-001 ]
      - [ 5.31666696e-001, 3.85964900e-001, 3.93939406e-001 ]
      - [ 5.08333325e-001, 3.79629642e-001, 3.99103135e-001 ]
      - [ 5.09999990e-001, 3.87850463e-001, 4.12556052e-001 ]
      - [ 5.00000000e-001, 3.92344505e-001, 4.17431206e-001 ]
      - [ 4.63333338e-001, 4.03061211e-001, 4.12060291e-001 ]
      - [ 5.53333342e-001, 3.69747907e-001, 3.85245889e-001 ]
      - [ 5.56666672e-001, 3.84937227e-001, 3.92561972e-001 ]
      - [ 5.68333328e-001, 3.95061731e-001, 4.00000006e-001 ]
      - [ 5.31666696e-001, 3.85964900e-001, 3.93939406e-001 ]
      - [ 4.98333335e-001, 3.84976536e-001, 3.96313369e-001 ]
      - [ 4.81666654e-001, 3.84236455e-001, 4.07582939e-001 ]
      - [ 4.69999999e-001, 4.01015222e-001, 4.18719202e-001 ]
      - [ 4.48333323e-001, 4.15789485e-001, 4.15789485e-001 ]
      - [ 5.51666677e-001, 3.70833337e-001, 3.76033068e-001 ]
      - [ 5.61666667e-001, 3.82716060e-001, 3.85245889e-001 ]
      - [ 5.48333347e-001, 3.88185650e-001, 3.88185650e-001 ]
      - [ 4.98333335e-001, 3.77880186e-001, 3.77880186e-001 ]
      - [ 4.60000008e-001, 3.75000000e-001, 3.78109455e-001 ]
      - [ 4.41666663e-001, 3.80952388e-001, 3.93782377e-001 ]
      - [ 4.25000012e-001, 3.90109897e-001, 3.96739125e-001 ]
      - [ 4.18333322e-001, 4.11111116e-001, 4.01129931e-001 ]
      - [ 5.53333342e-001, 3.78151268e-001, 3.88429761e-001 ]
      - [ 5.21666646e-001, 3.83928567e-001, 3.92070472e-001 ]
      - [ 4.58333343e-001, 3.71859282e-001, 3.78109455e-001 ]
      - [ 4.00000006e-001, 3.84615391e-001, 4.05714273e-001 ]
      - [ 3.91666681e-001, 4.07185614e-001, 4.07185614e-001 ]
      - [ 3.76666665e-001, 4.03726697e-001, 4.03726697e-001 ]
   decision_functions:
      -
         sv_count: 36
         rho: 1.1015932826015360e+001
         alpha: [ 10., 10., 10., 9.6832575889615971e+000, 10., 10., 10.,
             10., 10., 10., 10., 10., 10., 10., 10., 10., 10., 10., -10.,
             -10., -10., -10., -10., -10., -10., -10., -10., -10., -10.,
             -10., -10., -9.6832575889615971e+000, -10., -10., -10.,
             -10. ]
         index: [ 0, 1, 2, 3, 4, 5, 6, 7, 8, 9, 10, 11, 12, 13, 14, 15,
             16, 17, 18, 19, 20, 21, 22, 23, 24, 25, 26, 27, 28, 29, 30,
             31, 32, 33, 34, 36 ]
      -
         sv_count: 14
         rho: 1.0477001942272986e+001
         alpha: [ 10., 10., 10., 10., 10., 10., 9.9627909643388453e+000,
             -9.9627909643388453e+000, -10., -10., -10., -10., -10.,
             -10. ]
         index: [ 8, 10, 11, 12, 13, 15, 17, 87, 88, 89, 93, 95, 105,
             106 ]
      -
         sv_count: 116
         rho: 5.2529604759902107e+000
         alpha: [ 10., 10., 10., 10., 10., 10., 10., 10., 10., 10., 10.,
             10., 10., 10., 10., 10., 10., 10., 10., 10.,
             1.7867501143468534e+000, 10., 10., 10., 10., 10., 10., 10.,
             10., 10., 10., 10., 10., 10., 10., 10., 10., 10., 10., 10.,
             10., 10., 10., 10., 10., 10., 10., 10., 10., 10., 10., 10.,
             10., 10., 10., 10., 10., 10., -10., -10., -10.,
             -3.3711624646530218e+000, -10., -10., -10., -10., -10.,
             -10., -10., -10., -10., -10., -10., -10., -10., -10., -10.,
             -10., -10., -10., -10., -10., -10., -10., -10.,
             -8.4155876496938333e+000, -10., -10., -10., -10., -10.,
             -10., -10., -10., -10., -10., -10., -10., -10., -10., -10.,
             -10., -10., -10., -10., -10., -10., -10., -10., -10., -10.,
             -10., -10., -10., -10., -10. ]
         index: [ 18, 19, 20, 21, 22, 23, 24, 25, 26, 27, 28, 29, 30, 35,
             37, 38, 39, 40, 41, 42, 43, 44, 45, 46, 47, 48, 49, 50, 51,
             52, 53, 54, 55, 56, 57, 58, 59, 60, 61, 62, 63, 64, 65, 66,
             67, 68, 69, 70, 71, 72, 73, 74, 75, 76, 77, 78, 79, 80, 81,
             82, 83, 84, 85, 86, 87, 88, 89, 90, 91, 92, 93, 94, 95, 96,
             97, 98, 99, 100, 101, 102, 103, 104, 105, 107, 108, 109,
             110, 111, 112, 113, 114, 115, 116, 117, 118, 119, 120, 121,
             122, 123, 124, 125, 126, 127, 128, 129, 130, 131, 132, 133,
             134, 135, 136, 137, 138, 139 ]
